svm_type c_svc
kernel_type linear
nr_class 4
total_sv 7
rho -0.20590725613287733 -0.6167526863401768 -0.3914852294502937 -0.5156035837296609 -0.297486388829636 0.007302835133026209
label 9 13 16 17
nr_sv 3 2 1 1
SV
0.010331161307760874 0.005634705462664942 0.007482437725924854 1:-0.8356164383561644 2:-0.8028169014084507 3:0.875 4:-0.7922077922077921 5:-0.855072463768116 6:-1.0 9:-0.7333333333333334 10:1.0 11:-0.09090909090909094 14:-0.7777777777777778 15:0.875 17:1.0 18:1.0 19:-0.8157894736842105 20:-0.8734177215189873 21:-0.9714285714285714 22:-0.8 24:-0.8421052631578947 26:-0.8181818181818181 27:-0.8904109589041096 28:-0.125 29:-0.9178082191780822 30:1.0 31:1.0 32:-0.8378378378378378 33:-1.0 34:-0.8591549295774648 35:-1.0 36:-1.0 37:1.0 38:-0.717948717948718 41:1.0 42:1.0 43:1.0 44:-1.0 45:1.0 46:-0.975 47:1.0 48:-0.6623376623376623 49:1.0 50:1.0 52:-1.0 53:1.0 54:-1.0 56:-0.8651685393258427 58:-1.0 59:-1.0 60:-1.0 61:-1.0 62:1.0 81:1.0 82:1.0 93:1.0 94:1.0 96:1.0 97:1.0 
0.04393607932423716 0.02418134008884809 0.005428991144632707 1:1.0 2:-0.7183098591549295 3:0.25 4:-1.0 5:1.0 6:1.0 9:-0.6 10:-0.974025974025974 11:-0.4545454545454546 14:-0.6944444444444444 15:0.375 16:0.11111111111111116 17:0.19999999999999996 18:-1.0 19:-0.868421052631579 20:-0.9240506329113924 21:1.0 22:-1.0 24:-0.8421052631578947 26:-1.0 27:-0.8356164383561644 28:-0.375 29:1.0 30:-1.0 31:-1.0 32:-0.7837837837837838 33:-0.6585365853658536 34:1.0 35:1.0 36:1.0 37:1.0 38:1.0 41:1.0 42:-1.0 43:-0.974025974025974 44:1.0 45:1.0 46:-1.0 47:1.0 48:-0.5844155844155844 49:1.0 50:1.0 52:1.0 53:-1.0 54:1.0 56:1.0 58:1.0 59:-0.9743589743589743 60:1.0 61:1.0 62:-1.0 81:1.0 82:1.0 93:1.0 94:1.0 96:1.0 97:1.0 
0.0358655182693364 0.01296221952410067 0.018283621469120985 1:-0.7808219178082192 2:1.0 3:1.0 4:-0.6363636363636364 5:-0.7101449275362319 6:-0.9402985074626866 9:-0.7333333333333334 10:1.0 11:0.09090909090909083 14:1.0 15:1.0 16:0.5555555555555556 17:-0.33333333333333337 18:-0.7352941176470589 19:-0.9210526315789473 20:-0.8734177215189873 21:1.0 22:1.0 24:-0.9210526315789473 26:1.0 27:-1.0 28:-0.9375 29:-0.9726027397260274 30:-0.8571428571428572 31:1.0 32:1.0 33:1.0 34:1.0 35:-0.7534246575342466 36:-0.8873239436619719 37:1.0 38:-0.717948717948718 41:-0.8055555555555556 42:1.0 43:1.0 44:1.0 45:1.0 46:1.0 47:-1.0 48:-0.6883116883116883 49:1.0 50:-1.0 52:-0.9024390243902439 53:1.0 54:-1.0 56:-0.8876404494382022 58:1.0 59:1.0 60:1.0 61:1.0 62:1.0 81:1.0 82:1.0 93:1.0 94:1.0 96:1.0 97:1.0 
-0.043240225120067415 0.02754439393825305 0.012264973539026995 1:-1.0 2:-1.0 3:-1.0 4:-0.5584415584415585 5:-0.6231884057971014 6:1.0 9:-0.84 10:-1.0 11:-1.0 14:-1.0 15:-1.0 16:1.0 17:-0.7333333333333334 18:-0.6470588235294117 19:-0.8947368421052632 20:-1.0 21:1.0 22:-1.0 24:-0.8947368421052632 26:-1.0 27:-0.9726027397260274 28:-0.875 29:1.0 30:-0.9428571428571428 31:1.0 32:-1.0 33:1.0 34:1.0 35:-0.8904109589041096 36:1.0 37:-1.0 38:-1.0 41:1.0 42:1.0 43:-1.0 44:1.0 45:1.0 46:1.0 47:1.0 48:1.0 49:1.0 50:1.0 52:1.0 53:1.0 54:1.0 56:-1.0 58:1.0 59:1.0 60:1.0 61:1.0 62:1.0 81:-0.84 82:1.0 93:-0.925 94:1.0 96:1.0 97:1.0 
-0.046892533781267016 0.017797407768083594 0.012250681869310914 1:-0.5342465753424658 2:-0.4084507042253521 3:0.375 4:-0.7922077922077921 5:1.0 6:-0.6716417910447761 9:-1.0 10:1.0 11:-0.4545454545454546 14:-0.36111111111111116 15:0.5 16:0.5555555555555556 17:0.46666666666666656 18:-0.7352941176470589 19:1.0 20:-0.9240506329113924 21:1.0 24:1.0 26:-0.2727272727272727 27:-0.863013698630137 28:-0.3125 29:-1.0 30:-0.9142857142857143 31:-0.9459459459459459 32:-0.8378378378378378 33:-0.9512195121951219 34:-1.0 35:-0.8082191780821918 36:-0.7183098591549295 37:1.0 38:-0.8205128205128205 41:-0.6944444444444444 42:1.0 43:1.0 44:1.0 45:-1.0 46:1.0 47:-0.9759036144578314 48:-1.0 49:1.0 50:-0.9759036144578314 52:1.0 53:-0.8461538461538461 54:1.0 56:1.0 58:1.0 59:-0.8717948717948718 60:1.0 61:1.0 62:-0.7857142857142857 81:-1.0 82:1.0 93:1.0 94:-1.0 96:1.0 97:1.0 
-0.0427782650756137 -0.045341801706336636 0.02276777742496493 1:1.0 2:-0.7183098591549295 3:-0.875 4:-0.8961038961038961 5:-0.7391304347826086 6:1.0 9:-0.9466666666666667 10:-1.0 11:-0.09090909090909094 14:1.0 15:-0.875 16:-0.2222222222222222 17:0.7333333333333334 17:0.7333333333333334 18:-0.7941176470588236 19:-1.0 20:-0.9493670886075949 21:-1.0 22:-0.4 24:-1.0 26:-0.8181818181818181 27:1.0 28:1.0 29:-1.0 30:-0.9142857142857143 31:1.0 32:-0.8918918918918919 33:-1.0 34:1.0 35:-0.8082191780821918 36:1.0 37:1.0 38:-0.9487179487179487 41:-1.0 42:1.0 43:-0.974025974025974 44:1.0 45:1.0 46:1.0 47:1.0 48:-0.7142857142857143 49:1.0 50:1.0 52:-0.9024390243902439 53:-0.8461538461538461 54:1.0 56:1.0 58:1.0 59:1.0 60:1.0 61:1.0 62:-0.8095238095238095 81:-0.9733333333333334 82:1.0 93:-1.0 94:1.0 96:1.0 97:1.0 
-0.031195050339678544 -0.024515655408337902 -0.02276777742496493 1:-0.8356164383561644 2:1.0 3:-0.625 4:1.0 5:-1.0 6:-1.0 9:1.0 10:1.0 11:1.0 14:1.0 15:-0.5 16:-1.0 17:-1.0 17:-1.0 18:-1.0 19:-0.868421052631579 20:1.0 21:-0.9428571428571428 22:0.6000000000000001 24:-0.868421052631579 26:0.4545454545454546 27:1.0 28:-1.0 29:-0.36986301369863017 30:-0.6571428571428571 31:1.0 32:-0.7837837837837838 33:-0.8292682926829268 34:-0.8309859154929577 35:-0.589041095890411 36:-0.7464788732394366 37:1.0 38:-0.8717948717948718 41:-0.7222222222222222 42:1.0 43:1.0 44:1.0 45:1.0 46:-0.875 47:1.0 48:1.0 49:-1.0 50:-0.8795180722891567 52:-0.8780487804878049 53:1.0 54:1.0 56:1.0 58:1.0 59:1.0 60:1.0 61:1.0 62:1.0 81:1.0 82:-1.0 93:-0.75 94:1.0 96:-1.0 97:-1.0 
